0.869061796747
-0.382032670252
-0.975759200617
0.632401266008
-2.492541099531
0.728888155337
-0.285870327959
2.561502053321
0.377206501622
-0.284582811752
1.647543181692
-3.767251636574
0.752724116334
-0.197740572647
0.668518004175
2.229866040039
1.616730155447
-1.016954252587
0.63829897341
-4.691807633995
-2.296387695137
2.249739681379
-1.639758353784
3.761984327561
1.101942015862
4.434713474631
-1.723827526043
-1.091137258915
-1.232341574952
4.456960441044
4.100746258692
8.02006978605
0.542238210248
-0.677268113869
0.30756389484
2.508748358373
0.874470010031
-1.250551124743
0.966991020089
-3.869156113277
1.085267000232
-7.469710786117
2.971742812244
-2.299251435248
0.717881352302
-2.153055186775
2.719519834995
6.963605162595
3.912148551321
2.247950165641
3.177989949121
-2.182277079517
3.567031531886
-0.702617784812
1.374567477655
-2.008207068702
0.528758423206
-1.427914418971
0.546030980877
3.349754463642
0.501910860433
2.291444005905
3.017328745145
-1.007655277087
5.846439472412
0.884786881616
-0.640282299263
-1.670811974468
-0.211126567275
-2.599893364075
4.567476876792
-1.869864562454
3.514352248413
-1.414230161257
0.471652907786
-1.66009226931
1.379536490272
-3.099531448601
0.769788368775
6.949749160809
-1.929654862726
-4.054334667962
-2.131668196063
2.059441711496
-2.964551227204
1.391886153007
-1.461265989706
1.196440433396
0.323462381538
0.652186684018
0.844298771169
-1.732467523888
2.447330500446
-2.178903279032
3.383779998136
2.15064065157
1.898675959735
2.937910145836
-1.931467962031
2.472367198651
-1.772497061058
1.715760386113
-2.460282033563
-1.071818845442
-1.881689339429
0.815960659526
1.051960233665
-1.508491312372
1.786950737789
0.534916818012
-0.024393712883
-0.155250593542
-0.043367635197
0.135972924597
-0.01590669455
0.037918729103
-0.439814364293
-0.032508153761
0.042301005273
0.356567167305
0.501854834226
3.106812858783
-2.420856326999
4.988728077044
-2.726532650877
-0.871122115874
2.375235651147
-4.271842244733
-2.243669742628
-3.905754488134
0.021911423975
0.343245432387
0.582440126091
-0.243758646536
-0.057439362947
0.294591950853
-0.118006800459
0.182042527547
0.152519879661
0.191623411028
0.008863695372
-0.092822580096
-0.039518698862
0.043067941741
-0.015690456371
-0.015592256613
0.049106815273
-0.417117160865
-0.098229896442
0.215917453583
0.10218334892
-0.070832355846
-0.191297465635
0.057309168641
-0.053922608353
-0.030628969277
-0.007825021107
0.172034106855
0.07206755888
-0.009216867421
-0.13017984934
1.292003689869
2.22396935325
-1.303622158633
-1.393118534089
-1.11259387991
2.740396004566
-2.418112536007
0.738415917965
-2.05367368707
0.221892972722
0.057717605403
0.075005193553
-0.105594145476
-0.094465969033
0.248045211992
0.292816378725
0.031028534017
-0.221462233491
-2.164370112988
-0.660186544788
0.190151795446
0.788015010974
-0.192693507363
0.22947692661
-0.038848369725
0.57460360776
1.135118728853
-2.256117568999
0.877486391761
-0.01894181399
-0.595983800785
-0.028315346212
0.058007420141
0.020607905632
0.698572551488
1.300544537761
0.280123027984
-0.389046521067
0.062272514546
0.196172116755
0.022877348652
0.072229293024
0.00373395827
-0.357169018737
-0.557547997543
-0.453037654592
0.395076706063
-0.223122861867
0.594054254748
0.332919579747
-0.214707874388
-0.01795073166
-0.553838381936
0.875697238823
0.538716191126
1.026518394483
0.029501993003
0.809661150295
-0.205532049171
0.001345845509
-0.008915330916
0.741619287026
0.042351478026
-2.18986779883
0.847184239519
0.062972419792
0.779150230208
-0.061511477005
0.04288991408
0.038261116446
-0.637920601852
1.380455006422
-0.024638172518
0.660501806913
0.715673124427
-0.007233336989
0.038789174565
-0.70579097261
0.675172884524
1.264558028941
0.031424392204
-0.759762739539
1.636935573159
0.160302174354
-0.009331528582
0.788115029446
-0.828182914537
0.791234039427
-0.007659603202
-0.739705872423
-0.833079677979
-0.057266676791
0.004132806694
0.69861941953
1.575571538421
0.683757093226
0.035228009237
1.605411115878
-0.705849389105
0.059522435347
0.135599802447
0.777697175087
-0.884134193843
0.724392568569
